<?xml version="1.0"?>
<opencv_storage>
<cascade>
  <stageType>BOOST</stageType>
  <featureType>HAAR</featureType>
  <height>32</height>
  <width>12</width>
  <stageParams>
    <boostType>GAB</boostType>
    <minHitRate>9.9500000476837158e-01</minHitRate>
    <maxFalseAlarm>5.0000000000000000e-01</maxFalseAlarm>
    <weightTrimRate>9.4999999999999996e-01</weightTrimRate>
    <maxDepth>1</maxDepth>
    <maxWeakCount>100</maxWeakCount></stageParams>
  <featureParams>
    <maxCatCount>0</maxCatCount>
    <featSize>1</featSize>
    <mode>BASIC</mode></featureParams>
  <stageNum>10</stageNum>
  <stages>
    <!-- stage 0 -->
    <_>
      <maxWeakCount>2</maxWeakCount>
      <stageThreshold>1.9230923056602478e-01</stageThreshold>
      <weakClassifiers>
        <_>
          <internalNodes>
            0 -1 14 -2.3776922898832709e-04</internalNodes>
          <leafValues>
            9.2592591047286987e-01 -6.5714287757873535e-01</leafValues></_>
        <_>
          <internalNodes>
            0 -1 4 -2.4932247470133007e-04</internalNodes>
          <leafValues>
            8.4945207834243774e-01 -7.0457440614700317e-01</leafValues></_></weakClassifiers></_>
    <!-- stage 1 -->
    <_>
      <maxWeakCount>3</maxWeakCount>
      <stageThreshold>-2.9494315385818481e-01</stageThreshold>
      <weakClassifiers>
        <_>
          <internalNodes>
            0 -1 20 -8.5704517550766468e-04</internalNodes>
          <leafValues>
            8.4615385532379150e-01 -5.5555558204650879e-01</leafValues></_>
        <_>
          <internalNodes>
            0 -1 17 -9.6148514421656728e-04</internalNodes>
          <leafValues>
            8.3089715242385864e-01 -5.4453063011169434e-01</leafValues></_>
        <_>
          <internalNodes>
            0 -1 2 1.7558613326400518e-03</internalNodes>
          <leafValues>
            -5.7028472423553467e-01 8.2684141397476196e-01</leafValues></_></weakClassifiers></_>
    <!-- stage 2 -->
    <_>
      <maxWeakCount>3</maxWeakCount>
      <stageThreshold>-9.2074126005172729e-02</stageThreshold>
      <weakClassifiers>
        <_>
          <internalNodes>
            0 -1 16 -2.6431898004375398e-04</internalNodes>
          <leafValues>
            8.3999997377395630e-01 -5.1351350545883179e-01</leafValues></_>
        <_>
          <internalNodes>
            0 -1 7 -4.0903501212596893e-03</internalNodes>
          <leafValues>
            1. -4.4831809401512146e-01</leafValues></_>
        <_>
          <internalNodes>
            0 -1 12 -3.5412784200161695e-03</internalNodes>
          <leafValues>
            8.9041888713836670e-01 -4.8375603556632996e-01</leafValues></_></weakClassifiers></_>
    <!-- stage 3 -->
    <_>
      <maxWeakCount>3</maxWeakCount>
      <stageThreshold>-3.1813967227935791e-01</stageThreshold>
      <weakClassifiers>
        <_>
          <internalNodes>
            0 -1 0 4.4361418113112450e-03</internalNodes>
          <leafValues>
            -4.1463413834571838e-01 9.0476191043853760e-01</leafValues></_>
        <_>
          <internalNodes>
            0 -1 1 -4.7796051949262619e-02</internalNodes>
          <leafValues>
            9.3307310342788696e-01 -4.8989892005920410e-01</leafValues></_>
        <_>
          <internalNodes>
            0 -1 21 -1.2910617515444756e-03</internalNodes>
          <leafValues>
            -7.8856450319290161e-01 5.8639341592788696e-01</leafValues></_></weakClassifiers></_>
    <!-- stage 4 -->
    <_>
      <maxWeakCount>2</maxWeakCount>
      <stageThreshold>-4.1855283081531525e-02</stageThreshold>
      <weakClassifiers>
        <_>
          <internalNodes>
            0 -1 3 7.8216820955276489e-02</internalNodes>
          <leafValues>
            4.7619047760963440e-01 -8.9999997615814209e-01</leafValues></_>
        <_>
          <internalNodes>
            0 -1 18 -3.3297343179583549e-03</internalNodes>
          <leafValues>
            1. -5.1804578304290771e-01</leafValues></_></weakClassifiers></_>
    <!-- stage 5 -->
    <_>
      <maxWeakCount>2</maxWeakCount>
      <stageThreshold>1.8876171112060547e-01</stageThreshold>
      <weakClassifiers>
        <_>
          <internalNodes>
            0 -1 8 2.8360169380903244e-03</internalNodes>
          <leafValues>
            -5.1351350545883179e-01 8.3999997377395630e-01</leafValues></_>
        <_>
          <internalNodes>
            0 -1 10 3.6636680306401104e-05</internalNodes>
          <leafValues>
            -6.5123832225799561e-01 7.5146085023880005e-01</leafValues></_></weakClassifiers></_>
    <!-- stage 6 -->
    <_>
      <maxWeakCount>3</maxWeakCount>
      <stageThreshold>-2.3546358942985535e-01</stageThreshold>
      <weakClassifiers>
        <_>
          <internalNodes>
            0 -1 13 -1.8695922568440437e-02</internalNodes>
          <leafValues>
            9.0476191043853760e-01 -4.1463413834571838e-01</leafValues></_>
        <_>
          <internalNodes>
            0 -1 6 -5.5789919570088387e-03</internalNodes>
          <leafValues>
            7.6959180831909180e-01 -5.2187067270278931e-01</leafValues></_>
        <_>
          <internalNodes>
            0 -1 19 -7.2368821129202843e-03</internalNodes>
          <leafValues>
            8.9096426963806152e-01 -5.9042125940322876e-01</leafValues></_></weakClassifiers></_>
    <!-- stage 7 -->
    <_>
      <maxWeakCount>2</maxWeakCount>
      <stageThreshold>1.6343523561954498e-01</stageThreshold>
      <weakClassifiers>
        <_>
          <internalNodes>
            0 -1 15 -4.6106437221169472e-03</internalNodes>
          <leafValues>
            9.0476191043853760e-01 -4.1463413834571838e-01</leafValues></_>
        <_>
          <internalNodes>
            0 -1 22 4.1361807234352455e-05</internalNodes>
          <leafValues>
            6.3698548078536987e-01 -7.4132668972015381e-01</leafValues></_></weakClassifiers></_>
    <!-- stage 8 -->
    <_>
      <maxWeakCount>2</maxWeakCount>
      <stageThreshold>1.9142445921897888e-01</stageThreshold>
      <weakClassifiers>
        <_>
          <internalNodes>
            0 -1 11 -1.1360452044755220e-03</internalNodes>
          <leafValues>
            1. -3.6363637447357178e-01</leafValues></_>
        <_>
          <internalNodes>
            0 -1 5 3.8850770215503871e-04</internalNodes>
          <leafValues>
            5.6878888607025146e-01 -8.0857551097869873e-01</leafValues></_></weakClassifiers></_>
    <!-- stage 9 -->
    <_>
      <maxWeakCount>1</maxWeakCount>
      <stageThreshold>3.9130434393882751e-01</stageThreshold>
      <weakClassifiers>
        <_>
          <internalNodes>
            0 -1 9 -3.5105511546134949e-02</internalNodes>
          <leafValues>
            -1. 3.9130434393882751e-01</leafValues></_></weakClassifiers></_></stages>
  <features>
    <_>
      <rects>
        <_>
          0 3 10 6 -1.</_>
        <_>
          0 5 10 2 3.</_></rects>
      <tilted>0</tilted></_>
    <_>
      <rects>
        <_>
          0 7 9 18 -1.</_>
        <_>
          0 16 9 9 2.</_></rects>
      <tilted>0</tilted></_>
    <_>
      <rects>
        <_>
          0 26 4 4 -1.</_>
        <_>
          0 26 2 2 2.</_>
        <_>
          2 28 2 2 2.</_></rects>
      <tilted>0</tilted></_>
    <_>
      <rects>
        <_>
          1 7 7 24 -1.</_>
        <_>
          1 15 7 8 3.</_></rects>
      <tilted>0</tilted></_>
    <_>
      <rects>
        <_>
          1 13 6 1 -1.</_>
        <_>
          3 13 2 1 3.</_></rects>
      <tilted>0</tilted></_>
    <_>
      <rects>
        <_>
          2 0 3 2 -1.</_>
        <_>
          3 0 1 2 3.</_></rects>
      <tilted>0</tilted></_>
    <_>
      <rects>
        <_>
          2 12 9 3 -1.</_>
        <_>
          2 13 9 1 3.</_></rects>
      <tilted>0</tilted></_>
    <_>
      <rects>
        <_>
          2 22 3 3 -1.</_>
        <_>
          3 22 1 3 3.</_></rects>
      <tilted>0</tilted></_>
    <_>
      <rects>
        <_>
          3 1 3 6 -1.</_>
        <_>
          4 1 1 6 3.</_></rects>
      <tilted>0</tilted></_>
    <_>
      <rects>
        <_>
          3 2 7 9 -1.</_>
        <_>
          3 5 7 3 3.</_></rects>
      <tilted>0</tilted></_>
    <_>
      <rects>
        <_>
          3 7 2 2 -1.</_>
        <_>
          3 7 1 1 2.</_>
        <_>
          4 8 1 1 2.</_></rects>
      <tilted>0</tilted></_>
    <_>
      <rects>
        <_>
          3 28 3 3 -1.</_>
        <_>
          3 29 3 1 3.</_></rects>
      <tilted>0</tilted></_>
    <_>
      <rects>
        <_>
          4 2 2 6 -1.</_>
        <_>
          4 4 2 2 3.</_></rects>
      <tilted>0</tilted></_>
    <_>
      <rects>
        <_>
          4 2 6 7 -1.</_>
        <_>
          6 2 2 7 3.</_></rects>
      <tilted>0</tilted></_>
    <_>
      <rects>
        <_>
          4 3 6 3 -1.</_>
        <_>
          6 3 2 3 3.</_></rects>
      <tilted>0</tilted></_>
    <_>
      <rects>
        <_>
          4 12 5 3 -1.</_>
        <_>
          4 13 5 1 3.</_></rects>
      <tilted>0</tilted></_>
    <_>
      <rects>
        <_>
          5 23 2 4 -1.</_>
        <_>
          5 23 1 2 2.</_>
        <_>
          6 25 1 2 2.</_></rects>
      <tilted>0</tilted></_>
    <_>
      <rects>
        <_>
          6 9 2 4 -1.</_>
        <_>
          6 11 2 2 2.</_></rects>
      <tilted>0</tilted></_>
    <_>
      <rects>
        <_>
          7 15 3 3 -1.</_>
        <_>
          8 15 1 3 3.</_></rects>
      <tilted>0</tilted></_>
    <_>
      <rects>
        <_>
          7 15 3 13 -1.</_>
        <_>
          8 15 1 13 3.</_></rects>
      <tilted>0</tilted></_>
    <_>
      <rects>
        <_>
          8 6 4 15 -1.</_>
        <_>
          8 11 4 5 3.</_></rects>
      <tilted>0</tilted></_>
    <_>
      <rects>
        <_>
          9 16 2 12 -1.</_>
        <_>
          9 16 1 6 2.</_>
        <_>
          10 22 1 6 2.</_></rects>
      <tilted>0</tilted></_>
    <_>
      <rects>
        <_>
          10 2 2 1 -1.</_>
        <_>
          11 2 1 1 2.</_></rects>
      <tilted>0</tilted></_></features></cascade>
</opencv_storage>
